<?xml version="1.0"?>
<opencv_storage>
<cascade>
  <stageType>BOOST</stageType>
  <featureType>HAAR</featureType>
  <height>24</height>
  <width>24</width>
  <stageParams>
    <boostType>GAB</boostType>
    <minHitRate>9.9500000476837158e-01</minHitRate>
    <maxFalseAlarm>5.0000000000000000e-01</maxFalseAlarm>
    <weightTrimRate>9.4999998807907104e-01</weightTrimRate>
    <maxDepth>1</maxDepth>
    <maxWeakCount>100</maxWeakCount></stageParams>
  <featureParams>
    <maxCatCount>0</maxCatCount>
    <featSize>1</featSize>
    <mode>BASIC</mode></featureParams>
  <stageNum>4</stageNum>
  <stages>
    <!-- stage 0 -->
    <_>
      <maxWeakCount>2</maxWeakCount>
      <stageThreshold>-7.0207953453063965e-01</stageThreshold>
      <weakClassifiers>
        <_>
          <internalNodes>
            0 -1 3 -5.9770524501800537e-01</internalNodes>
          <leafValues>
            1. -9.9600797891616821e-01</leafValues></_>
        <_>
          <internalNodes>
            0 -1 7 -6.2506282702088356e-03</internalNodes>
          <leafValues>
            2.9392844438552856e-01 -1.</leafValues></_></weakClassifiers></_>
    <!-- stage 1 -->
    <_>
      <maxWeakCount>2</maxWeakCount>
      <stageThreshold>-4.2407092452049255e-01</stageThreshold>
      <weakClassifiers>
        <_>
          <internalNodes>
            0 -1 2 -5.8177059888839722e-01</internalNodes>
          <leafValues>
            1. -9.9401795864105225e-01</leafValues></_>
        <_>
          <internalNodes>
            0 -1 8 1.0362500697374344e-01</internalNodes>
          <leafValues>
            -1. 5.6994700431823730e-01</leafValues></_></weakClassifiers></_>
    <!-- stage 2 -->
    <_>
      <maxWeakCount>3</maxWeakCount>
      <stageThreshold>-1.6599711179733276e+00</stageThreshold>
      <weakClassifiers>
        <_>
          <internalNodes>
            0 -1 1 2.1197076141834259e-01</internalNodes>
          <leafValues>
            -9.9203187227249146e-01 1.</leafValues></_>
        <_>
          <internalNodes>
            0 -1 6 4.3498326092958450e-02</internalNodes>
          <leafValues>
            -9.8538643121719360e-01 2.9029160737991333e-01</leafValues></_>
        <_>
          <internalNodes>
            0 -1 5 7.7367015182971954e-02</internalNodes>
          <leafValues>
            -9.5823085308074951e-01 7.0629209280014038e-01</leafValues></_></weakClassifiers></_>
    <!-- stage 3 -->
    <_>
      <maxWeakCount>2</maxWeakCount>
      <stageThreshold>1.1102230246251565e-16</stageThreshold>
      <weakClassifiers>
        <_>
          <internalNodes>
            0 -1 4 -7.8508041799068451e-02</internalNodes>
          <leafValues>
            1. -9.9600797891616821e-01</leafValues></_>
        <_>
          <internalNodes>
            0 -1 0 -3.5063333809375763e-02</internalNodes>
          <leafValues>
            1. -1.</leafValues></_></weakClassifiers></_></stages>
  <features>
    <_>
      <rects>
        <_>
          0 0 6 12 -1.</_>
        <_>
          0 0 3 6 2.</_>
        <_>
          3 6 3 6 2.</_></rects>
      <tilted>0</tilted></_>
    <_>
      <rects>
        <_>
          0 0 12 14 -1.</_>
        <_>
          4 0 4 14 3.</_></rects>
      <tilted>0</tilted></_>
    <_>
      <rects>
        <_>
          0 2 23 21 -1.</_>
        <_>
          0 9 23 7 3.</_></rects>
      <tilted>0</tilted></_>
    <_>
      <rects>
        <_>
          0 5 21 17 -1.</_>
        <_>
          7 5 7 17 3.</_></rects>
      <tilted>0</tilted></_>
    <_>
      <rects>
        <_>
          1 3 10 16 -1.</_>
        <_>
          1 3 5 8 2.</_>
        <_>
          6 11 5 8 2.</_></rects>
      <tilted>0</tilted></_>
    <_>
      <rects>
        <_>
          8 7 16 3 -1.</_>
        <_>
          16 7 8 3 2.</_></rects>
      <tilted>0</tilted></_>
    <_>
      <rects>
        <_>
          8 12 2 12 -1.</_>
        <_>
          8 18 2 6 2.</_></rects>
      <tilted>0</tilted></_>
    <_>
      <rects>
        <_>
          10 3 2 2 -1.</_>
        <_>
          10 4 2 1 2.</_></rects>
      <tilted>0</tilted></_>
    <_>
      <rects>
        <_>
          11 4 8 20 -1.</_>
        <_>
          11 4 4 10 2.</_>
        <_>
          15 14 4 10 2.</_></rects>
      <tilted>0</tilted></_></features></cascade>
</opencv_storage>
