<?xml version="1.0"?>
<opencv_storage>
<cascade>
  <stageType>BOOST</stageType>
  <featureType>HAAR</featureType>
  <height>24</height>
  <width>24</width>
  <stageParams>
    <boostType>GAB</boostType>
    <minHitRate>9.9500000476837158e-01</minHitRate>
    <maxFalseAlarm>5.0000000000000000e-01</maxFalseAlarm>
    <weightTrimRate>9.4999998807907104e-01</weightTrimRate>
    <maxDepth>1</maxDepth>
    <maxWeakCount>100</maxWeakCount></stageParams>
  <featureParams>
    <maxCatCount>0</maxCatCount>
    <featSize>1</featSize>
    <mode>BASIC</mode></featureParams>
  <stageNum>14</stageNum>
  <stages>
    <!-- stage 0 -->
    <_>
      <maxWeakCount>3</maxWeakCount>
      <stageThreshold>-1.6271728277206421e+00</stageThreshold>
      <weakClassifiers>
        <_>
          <internalNodes>
            0 -1 36 -1.8092156946659088e-01</internalNodes>
          <leafValues>
            1.6666667163372040e-01 -9.8103266954421997e-01</leafValues></_>
        <_>
          <internalNodes>
            0 -1 23 3.2152250409126282e-02</internalNodes>
          <leafValues>
            -8.5659927129745483e-01 4.5922973752021790e-01</leafValues></_>
        <_>
          <internalNodes>
            0 -1 11 3.2786636438686401e-05</internalNodes>
          <leafValues>
            -9.3724018335342407e-01 3.5737064480781555e-01</leafValues></_></weakClassifiers></_>
    <!-- stage 1 -->
    <_>
      <maxWeakCount>3</maxWeakCount>
      <stageThreshold>-1.4147578477859497e+00</stageThreshold>
      <weakClassifiers>
        <_>
          <internalNodes>
            0 -1 48 -1.2808932363986969e-01</internalNodes>
          <leafValues>
            6.9230771064758301e-01 -9.0585976839065552e-01</leafValues></_>
        <_>
          <internalNodes>
            0 -1 32 -2.4022400379180908e-01</internalNodes>
          <leafValues>
            3.6727660894393921e-01 -8.3604317903518677e-01</leafValues></_>
        <_>
          <internalNodes>
            0 -1 19 3.0553645046893507e-05</internalNodes>
          <leafValues>
            -8.7617468833923340e-01 4.3210124969482422e-01</leafValues></_></weakClassifiers></_>
    <!-- stage 2 -->
    <_>
      <maxWeakCount>2</maxWeakCount>
      <stageThreshold>-7.6698613166809082e-01</stageThreshold>
      <weakClassifiers>
        <_>
          <internalNodes>
            0 -1 49 -1.0410759598016739e-01</internalNodes>
          <leafValues>
            8.7878787517547607e-01 -8.8301885128021240e-01</leafValues></_>
        <_>
          <internalNodes>
            0 -1 19 1.9256061932537705e-04</internalNodes>
          <leafValues>
            1.1603274196386337e-01 -1.</leafValues></_></weakClassifiers></_>
    <!-- stage 3 -->
    <_>
      <maxWeakCount>4</maxWeakCount>
      <stageThreshold>-2.3212356567382813e+00</stageThreshold>
      <weakClassifiers>
        <_>
          <internalNodes>
            0 -1 24 -2.8761420398950577e-02</internalNodes>
          <leafValues>
            -2.5000000372529030e-02 -8.9338600635528564e-01</leafValues></_>
        <_>
          <internalNodes>
            0 -1 26 -3.4157772461185232e-05</internalNodes>
          <leafValues>
            1.1620781570672989e-01 -9.2552411556243896e-01</leafValues></_>
        <_>
          <internalNodes>
            0 -1 17 -3.9545659092254937e-05</internalNodes>
          <leafValues>
            -9.6429651975631714e-01 2.8767013549804688e-01</leafValues></_>
        <_>
          <internalNodes>
            0 -1 40 -3.2611747883493081e-05</internalNodes>
          <leafValues>
            3.6793583631515503e-01 -7.8999567031860352e-01</leafValues></_></weakClassifiers></_>
    <!-- stage 4 -->
    <_>
      <maxWeakCount>5</maxWeakCount>
      <stageThreshold>-2.1063914299011230e+00</stageThreshold>
      <weakClassifiers>
        <_>
          <internalNodes>
            0 -1 35 -3.1703403592109680e-01</internalNodes>
          <leafValues>
            2.2727273404598236e-02 -9.0447759628295898e-01</leafValues></_>
        <_>
          <internalNodes>
            0 -1 30 -3.3693366276565939e-05</internalNodes>
          <leafValues>
            1.0959947854280472e-01 -9.2652273178100586e-01</leafValues></_>
        <_>
          <internalNodes>
            0 -1 7 3.2613166695227847e-05</internalNodes>
          <leafValues>
            -8.3682310581207275e-01 2.5231263041496277e-01</leafValues></_>
        <_>
          <internalNodes>
            0 -1 21 7.6411571353673935e-03</internalNodes>
          <leafValues>
            2.8152653574943542e-01 -1.</leafValues></_>
        <_>
          <internalNodes>
            0 -1 16 -3.6451179767027497e-05</internalNodes>
          <leafValues>
            -9.7290384769439697e-01 2.7990537881851196e-01</leafValues></_></weakClassifiers></_>
    <!-- stage 5 -->
    <_>
      <maxWeakCount>2</maxWeakCount>
      <stageThreshold>-1.0070966482162476e+00</stageThreshold>
      <weakClassifiers>
        <_>
          <internalNodes>
            0 -1 48 -1.3121026754379272e-01</internalNodes>
          <leafValues>
            -3.4482758492231369e-02 -8.9860832691192627e-01</leafValues></_>
        <_>
          <internalNodes>
            0 -1 8 -1.5118613373488188e-04</internalNodes>
          <leafValues>
            -1. -1.0848824679851532e-01</leafValues></_></weakClassifiers></_>
    <!-- stage 6 -->
    <_>
      <maxWeakCount>3</maxWeakCount>
      <stageThreshold>-1.3942128419876099e+00</stageThreshold>
      <weakClassifiers>
        <_>
          <internalNodes>
            0 -1 9 3.2414078305009753e-05</internalNodes>
          <leafValues>
            -9.9179208278656006e-01 -5.0276243686676025e-01</leafValues></_>
        <_>
          <internalNodes>
            0 -1 10 3.2387186365667731e-05</internalNodes>
          <leafValues>
            -9.3378573656082153e-01 -9.7696138545870781e-03</leafValues></_>
        <_>
          <internalNodes>
            0 -1 31 -1.2151207029819489e-01</internalNodes>
          <leafValues>
            5.3136491775512695e-01 -5.7107710838317871e-01</leafValues></_></weakClassifiers></_>
    <!-- stage 7 -->
    <_>
      <maxWeakCount>4</maxWeakCount>
      <stageThreshold>-1.6164406538009644e+00</stageThreshold>
      <weakClassifiers>
        <_>
          <internalNodes>
            0 -1 47 -4.2106665670871735e-02</internalNodes>
          <leafValues>
            1.4285714924335480e-01 -8.8932037353515625e-01</leafValues></_>
        <_>
          <internalNodes>
            0 -1 33 -3.4126922400901094e-05</internalNodes>
          <leafValues>
            1.3233413919806480e-02 -8.9976197481155396e-01</leafValues></_>
        <_>
          <internalNodes>
            0 -1 4 2.0912590844091028e-04</internalNodes>
          <leafValues>
            2.1748840808868408e-01 -9.5672762393951416e-01</leafValues></_>
        <_>
          <internalNodes>
            0 -1 27 -4.2700470658019185e-05</internalNodes>
          <leafValues>
            -9.7393167018890381e-01 2.1637398004531860e-01</leafValues></_></weakClassifiers></_>
    <!-- stage 8 -->
    <_>
      <maxWeakCount>4</maxWeakCount>
      <stageThreshold>-1.4561055898666382e+00</stageThreshold>
      <weakClassifiers>
        <_>
          <internalNodes>
            0 -1 45 -3.5363972187042236e-01</internalNodes>
          <leafValues>
            1.2903225421905518e-01 -8.8748788833618164e-01</leafValues></_>
        <_>
          <internalNodes>
            0 -1 52 -3.2862899388419464e-05</internalNodes>
          <leafValues>
            2.2522803395986557e-02 -8.4563803672790527e-01</leafValues></_>
        <_>
          <internalNodes>
            0 -1 27 3.2521388493478298e-04</internalNodes>
          <leafValues>
            2.6975011825561523e-01 -8.2743656635284424e-01</leafValues></_>
        <_>
          <internalNodes>
            0 -1 44 -3.5511508584022522e-02</internalNodes>
          <leafValues>
            3.0499589443206787e-01 -8.6089068651199341e-01</leafValues></_></weakClassifiers></_>
    <!-- stage 9 -->
    <_>
      <maxWeakCount>5</maxWeakCount>
      <stageThreshold>-2.1594245433807373e+00</stageThreshold>
      <weakClassifiers>
        <_>
          <internalNodes>
            0 -1 50 -3.5314112901687622e-02</internalNodes>
          <leafValues>
            3.4563460654119993e-17 -8.6794257164001465e-01</leafValues></_>
        <_>
          <internalNodes>
            0 -1 51 3.3288139093201607e-05</internalNodes>
          <leafValues>
            -8.0362170934677124e-01 1.0528242588043213e-01</leafValues></_>
        <_>
          <internalNodes>
            0 -1 14 5.4966687457635999e-05</internalNodes>
          <leafValues>
            2.0921723544597626e-01 -9.4053900241851807e-01</leafValues></_>
        <_>
          <internalNodes>
            0 -1 2 3.2905263651628047e-05</internalNodes>
          <leafValues>
            -9.2612421512603760e-01 2.2750252485275269e-01</leafValues></_>
        <_>
          <internalNodes>
            0 -1 29 -1.3657512681675144e-05</internalNodes>
          <leafValues>
            -9.8596411943435669e-01 2.2904683649539948e-01</leafValues></_></weakClassifiers></_>
    <!-- stage 10 -->
    <_>
      <maxWeakCount>5</maxWeakCount>
      <stageThreshold>-2.1264092922210693e+00</stageThreshold>
      <weakClassifiers>
        <_>
          <internalNodes>
            0 -1 18 -1.1401666700839996e-01</internalNodes>
          <leafValues>
            6.4705884456634521e-01 -8.5315984487533569e-01</leafValues></_>
        <_>
          <internalNodes>
            0 -1 12 5.9918369515798986e-05</internalNodes>
          <leafValues>
            -9.3114185333251953e-01 4.6024266630411148e-02</leafValues></_>
        <_>
          <internalNodes>
            0 -1 28 3.4527099342085421e-04</internalNodes>
          <leafValues>
            1.7655941843986511e-01 -9.3911427259445190e-01</leafValues></_>
        <_>
          <internalNodes>
            0 -1 25 3.7246303691063076e-05</internalNodes>
          <leafValues>
            -7.4341839551925659e-01 3.2485571503639221e-01</leafValues></_>
        <_>
          <internalNodes>
            0 -1 1 -1.5707593775005080e-05</internalNodes>
          <leafValues>
            -9.5688605308532715e-01 2.2475139796733856e-01</leafValues></_></weakClassifiers></_>
    <!-- stage 11 -->
    <_>
      <maxWeakCount>6</maxWeakCount>
      <stageThreshold>-1.9708532094955444e+00</stageThreshold>
      <weakClassifiers>
        <_>
          <internalNodes>
            0 -1 0 2.4215457960963249e-04</internalNodes>
          <leafValues>
            -9.4927537441253662e-01 -4.5660376548767090e-01</leafValues></_>
        <_>
          <internalNodes>
            0 -1 15 7.3685456300154328e-04</internalNodes>
          <leafValues>
            -9.0928643941879272e-01 -2.4096982553601265e-02</leafValues></_>
        <_>
          <internalNodes>
            0 -1 3 8.0978963524103165e-04</internalNodes>
          <leafValues>
            1.6701400279998779e-01 -9.1726309061050415e-01</leafValues></_>
        <_>
          <internalNodes>
            0 -1 41 3.3296717447228730e-05</internalNodes>
          <leafValues>
            -7.7240049839019775e-01 3.1688779592514038e-01</leafValues></_>
        <_>
          <internalNodes>
            0 -1 5 4.1606759623391554e-05</internalNodes>
          <leafValues>
            -8.5065639019012451e-01 2.4407915771007538e-01</leafValues></_>
        <_>
          <internalNodes>
            0 -1 34 1.0802455944940448e-03</internalNodes>
          <leafValues>
            2.5446319580078125e-01 -9.2053359746932983e-01</leafValues></_></weakClassifiers></_>
    <!-- stage 12 -->
    <_>
      <maxWeakCount>6</maxWeakCount>
      <stageThreshold>-2.3293521404266357e+00</stageThreshold>
      <weakClassifiers>
        <_>
          <internalNodes>
            0 -1 46 -3.5359393805265427e-02</internalNodes>
          <leafValues>
            -2.7272728085517883e-01 -8.9216685295104980e-01</leafValues></_>
        <_>
          <internalNodes>
            0 -1 38 3.2375668524764478e-05</internalNodes>
          <leafValues>
            -8.5564750432968140e-01 3.2652221620082855e-02</leafValues></_>
        <_>
          <internalNodes>
            0 -1 28 3.5353270504856482e-05</internalNodes>
          <leafValues>
            -7.9918020963668823e-01 2.8102713823318481e-01</leafValues></_>
        <_>
          <internalNodes>
            0 -1 20 3.0537452548742294e-02</internalNodes>
          <leafValues>
            -7.0780134201049805e-01 3.3136221766471863e-01</leafValues></_>
        <_>
          <internalNodes>
            0 -1 22 -5.2422791486606002e-04</internalNodes>
          <leafValues>
            3.8872897624969482e-01 -6.8514168262481689e-01</leafValues></_>
        <_>
          <internalNodes>
            0 -1 37 9.4470138719771057e-05</internalNodes>
          <leafValues>
            -5.6390929222106934e-01 5.7142192125320435e-01</leafValues></_></weakClassifiers></_>
    <!-- stage 13 -->
    <_>
      <maxWeakCount>5</maxWeakCount>
      <stageThreshold>-2.1524434089660645e+00</stageThreshold>
      <weakClassifiers>
        <_>
          <internalNodes>
            0 -1 43 -7.0693008601665497e-03</internalNodes>
          <leafValues>
            -1.3636364042758942e-01 -8.9054727554321289e-01</leafValues></_>
        <_>
          <internalNodes>
            0 -1 42 3.2180345442611724e-05</internalNodes>
          <leafValues>
            -8.4369492530822754e-01 7.7973315492272377e-03</leafValues></_>
        <_>
          <internalNodes>
            0 -1 39 3.3558451104909182e-04</internalNodes>
          <leafValues>
            2.2157010436058044e-01 -8.2630378007888794e-01</leafValues></_>
        <_>
          <internalNodes>
            0 -1 6 -4.8367146519012749e-05</internalNodes>
          <leafValues>
            -9.8088771104812622e-01 1.9695699214935303e-01</leafValues></_>
        <_>
          <internalNodes>
            0 -1 13 -4.5357046474236995e-05</internalNodes>
          <leafValues>
            -9.3870961666107178e-01 2.1114559471607208e-01</leafValues></_></weakClassifiers></_></stages>
  <features>
    <_>
      <rects>
        <_>
          0 0 6 10 -1.</_>
        <_>
          0 0 3 5 2.</_>
        <_>
          3 5 3 5 2.</_></rects>
      <tilted>0</tilted></_>
    <_>
      <rects>
        <_>
          0 3 2 9 -1.</_>
        <_>
          0 6 2 3 3.</_></rects>
      <tilted>0</tilted></_>
    <_>
      <rects>
        <_>
          0 3 6 6 -1.</_>
        <_>
          2 3 2 6 3.</_></rects>
      <tilted>0</tilted></_>
    <_>
      <rects>
        <_>
          0 3 3 9 -1.</_>
        <_>
          0 6 3 3 3.</_></rects>
      <tilted>0</tilted></_>
    <_>
      <rects>
        <_>
          0 6 2 12 -1.</_>
        <_>
          0 6 1 6 2.</_>
        <_>
          1 12 1 6 2.</_></rects>
      <tilted>0</tilted></_>
    <_>
      <rects>
        <_>
          0 6 6 3 -1.</_>
        <_>
          2 6 2 3 3.</_></rects>
      <tilted>0</tilted></_>
    <_>
      <rects>
        <_>
          0 7 3 6 -1.</_>
        <_>
          0 9 3 2 3.</_></rects>
      <tilted>0</tilted></_>
    <_>
      <rects>
        <_>
          0 8 2 1 -1.</_>
        <_>
          1 8 1 1 2.</_></rects>
      <tilted>0</tilted></_>
    <_>
      <rects>
        <_>
          0 8 2 10 -1.</_>
        <_>
          0 8 1 5 2.</_>
        <_>
          1 13 1 5 2.</_></rects>
      <tilted>0</tilted></_>
    <_>
      <rects>
        <_>
          0 9 2 1 -1.</_>
        <_>
          1 9 1 1 2.</_></rects>
      <tilted>0</tilted></_>
    <_>
      <rects>
        <_>
          0 10 2 1 -1.</_>
        <_>
          1 10 1 1 2.</_></rects>
      <tilted>0</tilted></_>
    <_>
      <rects>
        <_>
          0 11 2 1 -1.</_>
        <_>
          1 11 1 1 2.</_></rects>
      <tilted>0</tilted></_>
    <_>
      <rects>
        <_>
          0 11 2 2 -1.</_>
        <_>
          1 11 1 2 2.</_></rects>
      <tilted>0</tilted></_>
    <_>
      <rects>
        <_>
          0 18 4 2 -1.</_>
        <_>
          0 18 2 1 2.</_>
        <_>
          2 19 2 1 2.</_></rects>
      <tilted>0</tilted></_>
    <_>
      <rects>
        <_>
          0 22 6 1 -1.</_>
        <_>
          2 22 2 1 3.</_></rects>
      <tilted>0</tilted></_>
    <_>
      <rects>
        <_>
          1 0 21 1 -1.</_>
        <_>
          8 0 7 1 3.</_></rects>
      <tilted>0</tilted></_>
    <_>
      <rects>
        <_>
          1 0 16 3 -1.</_>
        <_>
          1 1 16 1 3.</_></rects>
      <tilted>0</tilted></_>
    <_>
      <rects>
        <_>
          1 1 2 21 -1.</_>
        <_>
          1 8 2 7 3.</_></rects>
      <tilted>0</tilted></_>
    <_>
      <rects>
        <_>
          1 9 18 3 -1.</_>
        <_>
          10 9 9 3 2.</_></rects>
      <tilted>0</tilted></_>
    <_>
      <rects>
        <_>
          1 11 2 1 -1.</_>
        <_>
          2 11 1 1 2.</_></rects>
      <tilted>0</tilted></_>
    <_>
      <rects>
        <_>
          1 12 23 12 -1.</_>
        <_>
          1 18 23 6 2.</_></rects>
      <tilted>0</tilted></_>
    <_>
      <rects>
        <_>
          2 3 16 3 -1.</_>
        <_>
          10 3 8 3 2.</_></rects>
      <tilted>0</tilted></_>
    <_>
      <rects>
        <_>
          2 14 1 10 -1.</_>
        <_>
          2 19 1 5 2.</_></rects>
      <tilted>0</tilted></_>
    <_>
      <rects>
        <_>
          2 14 16 10 -1.</_>
        <_>
          2 14 8 5 2.</_>
        <_>
          10 19 8 5 2.</_></rects>
      <tilted>0</tilted></_>
    <_>
      <rects>
        <_>
          2 15 18 1 -1.</_>
        <_>
          11 15 9 1 2.</_></rects>
      <tilted>0</tilted></_>
    <_>
      <rects>
        <_>
          3 1 6 4 -1.</_>
        <_>
          5 1 2 4 3.</_></rects>
      <tilted>0</tilted></_>
    <_>
      <rects>
        <_>
          3 22 1 2 -1.</_>
        <_>
          3 23 1 1 2.</_></rects>
      <tilted>0</tilted></_>
    <_>
      <rects>
        <_>
          4 0 2 6 -1.</_>
        <_>
          4 2 2 2 3.</_></rects>
      <tilted>0</tilted></_>
    <_>
      <rects>
        <_>
          4 0 9 1 -1.</_>
        <_>
          7 0 3 1 3.</_></rects>
      <tilted>0</tilted></_>
    <_>
      <rects>
        <_>
          4 1 9 1 -1.</_>
        <_>
          7 1 3 1 3.</_></rects>
      <tilted>0</tilted></_>
    <_>
      <rects>
        <_>
          4 22 1 2 -1.</_>
        <_>
          4 23 1 1 2.</_></rects>
      <tilted>0</tilted></_>
    <_>
      <rects>
        <_>
          5 8 16 15 -1.</_>
        <_>
          5 13 16 5 3.</_></rects>
      <tilted>0</tilted></_>
    <_>
      <rects>
        <_>
          9 0 15 24 -1.</_>
        <_>
          9 8 15 8 3.</_></rects>
      <tilted>0</tilted></_>
    <_>
      <rects>
        <_>
          9 22 1 2 -1.</_>
        <_>
          9 23 1 1 2.</_></rects>
      <tilted>0</tilted></_>
    <_>
      <rects>
        <_>
          9 23 12 1 -1.</_>
        <_>
          13 23 4 1 3.</_></rects>
      <tilted>0</tilted></_>
    <_>
      <rects>
        <_>
          10 0 9 24 -1.</_>
        <_>
          10 8 9 8 3.</_></rects>
      <tilted>0</tilted></_>
    <_>
      <rects>
        <_>
          10 0 14 24 -1.</_>
        <_>
          10 8 14 8 3.</_></rects>
      <tilted>0</tilted></_>
    <_>
      <rects>
        <_>
          10 13 4 1 -1.</_>
        <_>
          12 13 2 1 2.</_></rects>
      <tilted>0</tilted></_>
    <_>
      <rects>
        <_>
          10 22 9 2 -1.</_>
        <_>
          13 22 3 2 3.</_></rects>
      <tilted>0</tilted></_>
    <_>
      <rects>
        <_>
          10 22 10 2 -1.</_>
        <_>
          15 22 5 2 2.</_></rects>
      <tilted>0</tilted></_>
    <_>
      <rects>
        <_>
          11 22 1 2 -1.</_>
        <_>
          11 23 1 1 2.</_></rects>
      <tilted>0</tilted></_>
    <_>
      <rects>
        <_>
          11 23 12 1 -1.</_>
        <_>
          15 23 4 1 3.</_></rects>
      <tilted>0</tilted></_>
    <_>
      <rects>
        <_>
          12 0 3 2 -1.</_>
        <_>
          12 1 3 1 2.</_></rects>
      <tilted>0</tilted></_>
    <_>
      <rects>
        <_>
          12 4 2 14 -1.</_>
        <_>
          13 4 1 14 2.</_></rects>
      <tilted>0</tilted></_>
    <_>
      <rects>
        <_>
          13 0 11 14 -1.</_>
        <_>
          13 7 11 7 2.</_></rects>
      <tilted>0</tilted></_>
    <_>
      <rects>
        <_>
          13 0 11 21 -1.</_>
        <_>
          13 7 11 7 3.</_></rects>
      <tilted>0</tilted></_>
    <_>
      <rects>
        <_>
          14 1 6 6 -1.</_>
        <_>
          14 4 6 3 2.</_></rects>
      <tilted>0</tilted></_>
    <_>
      <rects>
        <_>
          15 0 2 12 -1.</_>
        <_>
          15 6 2 6 2.</_></rects>
      <tilted>0</tilted></_>
    <_>
      <rects>
        <_>
          15 0 3 24 -1.</_>
        <_>
          15 8 3 8 3.</_></rects>
      <tilted>0</tilted></_>
    <_>
      <rects>
        <_>
          16 0 2 24 -1.</_>
        <_>
          16 8 2 8 3.</_></rects>
      <tilted>0</tilted></_>
    <_>
      <rects>
        <_>
          17 0 1 18 -1.</_>
        <_>
          17 6 1 6 3.</_></rects>
      <tilted>0</tilted></_>
    <_>
      <rects>
        <_>
          20 0 3 2 -1.</_>
        <_>
          20 1 3 1 2.</_></rects>
      <tilted>0</tilted></_>
    <_>
      <rects>
        <_>
          22 0 2 1 -1.</_>
        <_>
          23 0 1 1 2.</_></rects>
      <tilted>0</tilted></_></features></cascade>
</opencv_storage>
